<?xml version="1.0"?>
<opencv_storage>
<cascade>
  <stageType>BOOST</stageType>
  <featureType>HAAR</featureType>
  <height>30</height>
  <width>30</width>
  <stageParams>
    <boostType>GAB</boostType>
    <minHitRate>9.9500000476837158e-01</minHitRate>
    <maxFalseAlarm>4.0000000596046448e-01</maxFalseAlarm>
    <weightTrimRate>9.4999998807907104e-01</weightTrimRate>
    <maxDepth>1</maxDepth>
    <maxWeakCount>100</maxWeakCount></stageParams>
  <featureParams>
    <maxCatCount>0</maxCatCount>
    <featSize>1</featSize>
    <mode>BASIC</mode></featureParams>
  <stageNum>18</stageNum>
  <stages>
    <!-- stage 0 -->
    <_>
      <maxWeakCount>6</maxWeakCount>
      <stageThreshold>2.5189474225044250e-01</stageThreshold>
      <weakClassifiers>
        <_>
          <internalNodes>
            0 -1 32 -6.8352572619915009e-02</internalNodes>
          <leafValues>
            9.8601400852203369e-01 -1.0588235408067703e-01</leafValues></_>
        <_>
          <internalNodes>
            0 -1 33 -7.5771413743495941e-02</internalNodes>
          <leafValues>
            1. -3.5287406295537949e-02</leafValues></_>
        <_>
          <internalNodes>
            0 -1 7 1.8912870436906815e-02</internalNodes>
          <leafValues>
            -2.1194452047348022e-01 8.6673128604888916e-01</leafValues></_>
        <_>
          <internalNodes>
            0 -1 53 4.0354122756980360e-04</internalNodes>
          <leafValues>
            -4.7527828812599182e-01 6.0774391889572144e-01</leafValues></_>
        <_>
          <internalNodes>
            0 -1 43 -2.2236745804548264e-02</internalNodes>
          <leafValues>
            8.7370908260345459e-01 -3.5495215654373169e-01</leafValues></_>
        <_>
          <internalNodes>
            0 -1 80 -2.1556878928095102e-03</internalNodes>
          <leafValues>
            -6.9194430112838745e-01 4.9357029795646667e-01</leafValues></_></weakClassifiers></_>
    <!-- stage 1 -->
    <_>
      <maxWeakCount>4</maxWeakCount>
      <stageThreshold>-1.2023538351058960e-01</stageThreshold>
      <weakClassifiers>
        <_>
          <internalNodes>
            0 -1 59 1.4789153356105089e-03</internalNodes>
          <leafValues>
            8.6666667461395264e-01 -1.7460317909717560e-01</leafValues></_>
        <_>
          <internalNodes>
            0 -1 95 -4.4644409790635109e-03</internalNodes>
          <leafValues>
            8.5801607370376587e-01 -2.4719430506229401e-01</leafValues></_>
        <_>
          <internalNodes>
            0 -1 64 3.4894172567874193e-03</internalNodes>
          <leafValues>
            -2.9683554172515869e-01 8.8329553604125977e-01</leafValues></_>
        <_>
          <internalNodes>
            0 -1 3 5.5397287011146545e-02</internalNodes>
          <leafValues>
            -4.4287219643592834e-01 7.7336829900741577e-01</leafValues></_></weakClassifiers></_>
    <!-- stage 2 -->
    <_>
      <maxWeakCount>6</maxWeakCount>
      <stageThreshold>1.5530864894390106e-01</stageThreshold>
      <weakClassifiers>
        <_>
          <internalNodes>
            0 -1 87 -8.2618743181228638e-03</internalNodes>
          <leafValues>
            9.2805755138397217e-01 3.3707864582538605e-02</leafValues></_>
        <_>
          <internalNodes>
            0 -1 5 6.7557081580162048e-02</internalNodes>
          <leafValues>
            -1.4694778621196747e-01 8.6692494153976440e-01</leafValues></_>
        <_>
          <internalNodes>
            0 -1 65 4.9467156641185284e-03</internalNodes>
          <leafValues>
            -3.9504858851432800e-01 6.9593340158462524e-01</leafValues></_>
        <_>
          <internalNodes>
            0 -1 122 -1.2969076633453369e-03</internalNodes>
          <leafValues>
            8.1714349985122681e-01 -3.7785142660140991e-01</leafValues></_>
        <_>
          <internalNodes>
            0 -1 14 4.7584865242242813e-03</internalNodes>
          <leafValues>
            -3.3367973566055298e-01 7.9669415950775146e-01</leafValues></_>
        <_>
          <internalNodes>
            0 -1 19 -1.5262223314493895e-03</internalNodes>
          <leafValues>
            -7.0524334907531738e-01 4.8077863454818726e-01</leafValues></_></weakClassifiers></_>
    <!-- stage 3 -->
    <_>
      <maxWeakCount>7</maxWeakCount>
      <stageThreshold>-1.1243195831775665e-01</stageThreshold>
      <weakClassifiers>
        <_>
          <internalNodes>
            0 -1 17 -6.9438040256500244e-02</internalNodes>
          <leafValues>
            8.9781022071838379e-01 9.8901100456714630e-02</leafValues></_>
        <_>
          <internalNodes>
            0 -1 106 -6.3934084028005600e-03</internalNodes>
          <leafValues>
            7.9967278242111206e-01 -2.0657268166542053e-01</leafValues></_>
        <_>
          <internalNodes>
            0 -1 30 -1.1779250577092171e-02</internalNodes>
          <leafValues>
            8.6634129285812378e-01 -2.4488012492656708e-01</leafValues></_>
        <_>
          <internalNodes>
            0 -1 116 -6.0323113575577736e-04</internalNodes>
          <leafValues>
            8.2452172040939331e-01 -3.1023383140563965e-01</leafValues></_>
        <_>
          <internalNodes>
            0 -1 77 1.9458748283796012e-04</internalNodes>
          <leafValues>
            4.9914085865020752e-01 -5.9694319963455200e-01</leafValues></_>
        <_>
          <internalNodes>
            0 -1 76 -3.0355300754308701e-02</internalNodes>
          <leafValues>
            7.0692217350006104e-01 -4.4417813420295715e-01</leafValues></_>
        <_>
          <internalNodes>
            0 -1 28 5.0290068611502647e-03</internalNodes>
          <leafValues>
            5.1425975561141968e-01 -5.1085454225540161e-01</leafValues></_></weakClassifiers></_>
    <!-- stage 4 -->
    <_>
      <maxWeakCount>5</maxWeakCount>
      <stageThreshold>3.8120787590742111e-02</stageThreshold>
      <weakClassifiers>
        <_>
          <internalNodes>
            0 -1 49 -1.0874354839324951e-01</internalNodes>
          <leafValues>
            -1. 6.8224298954010010e-01</leafValues></_>
        <_>
          <internalNodes>
            0 -1 42 2.3086108267307281e-02</internalNodes>
          <leafValues>
            -2.7777281403541565e-01 9.2942780256271362e-01</leafValues></_>
        <_>
          <internalNodes>
            0 -1 90 -4.4261207804083824e-03</internalNodes>
          <leafValues>
            6.7594575881958008e-01 -5.2184009552001953e-01</leafValues></_>
        <_>
          <internalNodes>
            0 -1 2 2.5608859956264496e-02</internalNodes>
          <leafValues>
            -4.9238079786300659e-01 6.5490382909774780e-01</leafValues></_>
        <_>
          <internalNodes>
            0 -1 119 -3.1102972570806742e-04</internalNodes>
          <leafValues>
            8.3113986253738403e-01 -4.9941313266754150e-01</leafValues></_></weakClassifiers></_>
    <!-- stage 5 -->
    <_>
      <maxWeakCount>8</maxWeakCount>
      <stageThreshold>4.0282294154167175e-02</stageThreshold>
      <weakClassifiers>
        <_>
          <internalNodes>
            0 -1 87 -6.6395322792232037e-03</internalNodes>
          <leafValues>
            8.6394560337066650e-01 6.1728395521640778e-02</leafValues></_>
        <_>
          <internalNodes>
            0 -1 74 -1.7313674092292786e-02</internalNodes>
          <leafValues>
            8.4135615825653076e-01 -2.3496872186660767e-01</leafValues></_>
        <_>
          <internalNodes>
            0 -1 107 7.4616313213482499e-05</internalNodes>
          <leafValues>
            5.7675516605377197e-01 -4.5634204149246216e-01</leafValues></_>
        <_>
          <internalNodes>
            0 -1 86 2.1249831188470125e-03</internalNodes>
          <leafValues>
            -4.3071869015693665e-01 6.2390297651290894e-01</leafValues></_>
        <_>
          <internalNodes>
            0 -1 61 -3.8461326039396226e-04</internalNodes>
          <leafValues>
            -6.9458401203155518e-01 3.4630849957466125e-01</leafValues></_>
        <_>
          <internalNodes>
            0 -1 96 -5.3562154062092304e-03</internalNodes>
          <leafValues>
            7.7777850627899170e-01 -3.4354975819587708e-01</leafValues></_>
        <_>
          <internalNodes>
            0 -1 41 -1.0816151043400168e-03</internalNodes>
          <leafValues>
            -6.0710173845291138e-01 4.8608452081680298e-01</leafValues></_>
        <_>
          <internalNodes>
            0 -1 11 7.7289267210289836e-05</internalNodes>
          <leafValues>
            -4.2135709524154663e-01 6.8812543153762817e-01</leafValues></_></weakClassifiers></_>
    <!-- stage 6 -->
    <_>
      <maxWeakCount>9</maxWeakCount>
      <stageThreshold>4.0423238277435303e-01</stageThreshold>
      <weakClassifiers>
        <_>
          <internalNodes>
            0 -1 83 -1.8794801086187363e-02</internalNodes>
          <leafValues>
            -4.5454546809196472e-01 6.8932038545608521e-01</leafValues></_>
        <_>
          <internalNodes>
            0 -1 20 -1.0825780779123306e-01</internalNodes>
          <leafValues>
            6.6603362560272217e-01 -3.2072430849075317e-01</leafValues></_>
        <_>
          <internalNodes>
            0 -1 114 -3.3802157267928123e-03</internalNodes>
          <leafValues>
            7.9514509439468384e-01 -2.9616296291351318e-01</leafValues></_>
        <_>
          <internalNodes>
            0 -1 47 2.3076203651726246e-03</internalNodes>
          <leafValues>
            -3.5004374384880066e-01 6.7627280950546265e-01</leafValues></_>
        <_>
          <internalNodes>
            0 -1 93 3.8636365206912160e-04</internalNodes>
          <leafValues>
            3.5604143142700195e-01 -7.3174172639846802e-01</leafValues></_>
        <_>
          <internalNodes>
            0 -1 15 2.0864917896687984e-03</internalNodes>
          <leafValues>
            -3.9404180645942688e-01 6.8906468152999878e-01</leafValues></_>
        <_>
          <internalNodes>
            0 -1 103 7.0221297210082412e-04</internalNodes>
          <leafValues>
            -2.9979583621025085e-01 8.2049512863159180e-01</leafValues></_>
        <_>
          <internalNodes>
            0 -1 51 -9.2485044151544571e-03</internalNodes>
          <leafValues>
            -6.3074171543121338e-01 4.0076929330825806e-01</leafValues></_>
        <_>
          <internalNodes>
            0 -1 89 8.4832347929477692e-03</internalNodes>
          <leafValues>
            -3.6788803339004517e-01 7.7134102582931519e-01</leafValues></_></weakClassifiers></_>
    <!-- stage 7 -->
    <_>
      <maxWeakCount>8</maxWeakCount>
      <stageThreshold>-8.7885051965713501e-02</stageThreshold>
      <weakClassifiers>
        <_>
          <internalNodes>
            0 -1 67 -3.0024880543351173e-03</internalNodes>
          <leafValues>
            -6.8421053886413574e-01 6.9377988576889038e-01</leafValues></_>
        <_>
          <internalNodes>
            0 -1 8 5.7721938937902451e-03</internalNodes>
          <leafValues>
            -2.0484521985054016e-01 9.0165519714355469e-01</leafValues></_>
        <_>
          <internalNodes>
            0 -1 71 -1.2117300182580948e-02</internalNodes>
          <leafValues>
            6.7458182573318481e-01 -3.8387048244476318e-01</leafValues></_>
        <_>
          <internalNodes>
            0 -1 111 -1.2196837924420834e-03</internalNodes>
          <leafValues>
            7.6008307933807373e-01 -3.1700131297111511e-01</leafValues></_>
        <_>
          <internalNodes>
            0 -1 54 2.4740997469052672e-04</internalNodes>
          <leafValues>
            -3.5474929213523865e-01 6.9954299926757812e-01</leafValues></_>
        <_>
          <internalNodes>
            0 -1 39 9.8852492868900299e-02</internalNodes>
          <leafValues>
            -3.1349614262580872e-01 7.8481948375701904e-01</leafValues></_>
        <_>
          <internalNodes>
            0 -1 104 -8.4200197306927294e-05</internalNodes>
          <leafValues>
            -4.5773902535438538e-01 5.3802531957626343e-01</leafValues></_>
        <_>
          <internalNodes>
            0 -1 92 -2.3107437300495803e-04</internalNodes>
          <leafValues>
            5.5724030733108521e-01 -4.8048195242881775e-01</leafValues></_></weakClassifiers></_>
    <!-- stage 8 -->
    <_>
      <maxWeakCount>6</maxWeakCount>
      <stageThreshold>1.2339815497398376e-01</stageThreshold>
      <weakClassifiers>
        <_>
          <internalNodes>
            0 -1 63 8.2514790119603276e-04</internalNodes>
          <leafValues>
            7.3134326934814453e-01 -5.5555558204650879e-01</leafValues></_>
        <_>
          <internalNodes>
            0 -1 6 3.8538951426744461e-02</internalNodes>
          <leafValues>
            -2.7245715260505676e-01 7.8800845146179199e-01</leafValues></_>
        <_>
          <internalNodes>
            0 -1 24 -9.6601229161024094e-03</internalNodes>
          <leafValues>
            7.4989575147628784e-01 -3.6829414963722229e-01</leafValues></_>
        <_>
          <internalNodes>
            0 -1 66 -8.0805842299014330e-04</internalNodes>
          <leafValues>
            -8.8347709178924561e-01 3.8282525539398193e-01</leafValues></_>
        <_>
          <internalNodes>
            0 -1 73 -3.5393303260207176e-03</internalNodes>
          <leafValues>
            6.2135112285614014e-01 -5.0217849016189575e-01</leafValues></_>
        <_>
          <internalNodes>
            0 -1 46 -2.6405486278235912e-03</internalNodes>
          <leafValues>
            -7.9047298431396484e-01 3.7859261035919189e-01</leafValues></_></weakClassifiers></_>
    <!-- stage 9 -->
    <_>
      <maxWeakCount>9</maxWeakCount>
      <stageThreshold>-5.8679580688476562e-01</stageThreshold>
      <weakClassifiers>
        <_>
          <internalNodes>
            0 -1 48 2.8684968128800392e-03</internalNodes>
          <leafValues>
            6.9523811340332031e-01 -7.7777779102325439e-01</leafValues></_>
        <_>
          <internalNodes>
            0 -1 109 -5.0470167770981789e-03</internalNodes>
          <leafValues>
            8.7772029638290405e-01 -3.1077378988265991e-01</leafValues></_>
        <_>
          <internalNodes>
            0 -1 4 2.9991671442985535e-02</internalNodes>
          <leafValues>
            -3.6985865235328674e-01 7.5341457128524780e-01</leafValues></_>
        <_>
          <internalNodes>
            0 -1 91 -5.0522753736004233e-04</internalNodes>
          <leafValues>
            -7.2982573509216309e-01 3.7344351410865784e-01</leafValues></_>
        <_>
          <internalNodes>
            0 -1 12 4.1870540007948875e-03</internalNodes>
          <leafValues>
            -3.5639438033103943e-01 9.1886663436889648e-01</leafValues></_>
        <_>
          <internalNodes>
            0 -1 10 -8.4079653024673462e-03</internalNodes>
          <leafValues>
            9.6559447050094604e-01 -2.5857409834861755e-01</leafValues></_>
        <_>
          <internalNodes>
            0 -1 102 -3.0427251476794481e-04</internalNodes>
          <leafValues>
            -4.7465774416923523e-01 5.4890924692153931e-01</leafValues></_>
        <_>
          <internalNodes>
            0 -1 68 -4.8323057853849605e-05</internalNodes>
          <leafValues>
            -4.4873002171516418e-01 6.5340834856033325e-01</leafValues></_>
        <_>
          <internalNodes>
            0 -1 40 -6.8135617766529322e-04</internalNodes>
          <leafValues>
            -5.4086565971374512e-01 5.6351131200790405e-01</leafValues></_></weakClassifiers></_>
    <!-- stage 10 -->
    <_>
      <maxWeakCount>6</maxWeakCount>
      <stageThreshold>-3.4743517637252808e-01</stageThreshold>
      <weakClassifiers>
        <_>
          <internalNodes>
            0 -1 123 1.4061110559850931e-03</internalNodes>
          <leafValues>
            6.8075114488601685e-01 -8.6666667461395264e-01</leafValues></_>
        <_>
          <internalNodes>
            0 -1 69 -3.2293699681758881e-02</internalNodes>
          <leafValues>
            7.7751433849334717e-01 -3.2977977395057678e-01</leafValues></_>
        <_>
          <internalNodes>
            0 -1 108 -2.2629308514297009e-03</internalNodes>
          <leafValues>
            8.9194011688232422e-01 -2.5338378548622131e-01</leafValues></_>
        <_>
          <internalNodes>
            0 -1 60 -6.9564962759613991e-03</internalNodes>
          <leafValues>
            -6.0307073593139648e-01 4.0025371313095093e-01</leafValues></_>
        <_>
          <internalNodes>
            0 -1 78 -2.0203721942380071e-04</internalNodes>
          <leafValues>
            -6.5490859746932983e-01 5.0551342964172363e-01</leafValues></_>
        <_>
          <internalNodes>
            0 -1 94 -3.7224902771413326e-03</internalNodes>
          <leafValues>
            8.8311344385147095e-01 -3.4746545553207397e-01</leafValues></_></weakClassifiers></_>
    <!-- stage 11 -->
    <_>
      <maxWeakCount>7</maxWeakCount>
      <stageThreshold>-5.5665326118469238e-01</stageThreshold>
      <weakClassifiers>
        <_>
          <internalNodes>
            0 -1 97 2.5557621847838163e-03</internalNodes>
          <leafValues>
            7.0854270458221436e-01 -3.1034481525421143e-01</leafValues></_>
        <_>
          <internalNodes>
            0 -1 16 3.8215972483158112e-02</internalNodes>
          <leafValues>
            -1.2782567739486694e-01 1.</leafValues></_>
        <_>
          <internalNodes>
            0 -1 52 5.3692851215600967e-03</internalNodes>
          <leafValues>
            -2.2575807571411133e-01 7.8049445152282715e-01</leafValues></_>
        <_>
          <internalNodes>
            0 -1 82 8.1013571470975876e-03</internalNodes>
          <leafValues>
            -2.5193455815315247e-01 8.7424933910369873e-01</leafValues></_>
        <_>
          <internalNodes>
            0 -1 1 1.9378036260604858e-02</internalNodes>
          <leafValues>
            -1.9083361327648163e-01 1.</leafValues></_>
        <_>
          <internalNodes>
            0 -1 55 5.2763946587219834e-04</internalNodes>
          <leafValues>
            -2.9094171524047852e-01 7.3165792226791382e-01</leafValues></_>
        <_>
          <internalNodes>
            0 -1 72 -7.9219173640012741e-03</internalNodes>
          <leafValues>
            7.6304668188095093e-01 -2.8519865870475769e-01</leafValues></_></weakClassifiers></_>
    <!-- stage 12 -->
    <_>
      <maxWeakCount>8</maxWeakCount>
      <stageThreshold>-1.6918234527111053e-01</stageThreshold>
      <weakClassifiers>
        <_>
          <internalNodes>
            0 -1 115 2.7126735076308250e-03</internalNodes>
          <leafValues>
            6.7289721965789795e-01 -8.5714286565780640e-01</leafValues></_>
        <_>
          <internalNodes>
            0 -1 29 -1.1612576246261597e-01</internalNodes>
          <leafValues>
            7.2528165578842163e-01 -2.9307648539543152e-01</leafValues></_>
        <_>
          <internalNodes>
            0 -1 13 4.9102632328867912e-03</internalNodes>
          <leafValues>
            -2.9680743813514709e-01 8.0945473909378052e-01</leafValues></_>
        <_>
          <internalNodes>
            0 -1 88 9.8069640807807446e-04</internalNodes>
          <leafValues>
            -2.8376135230064392e-01 8.4219741821289062e-01</leafValues></_>
        <_>
          <internalNodes>
            0 -1 110 -2.1517449058592319e-03</internalNodes>
          <leafValues>
            6.5235751867294312e-01 -3.6565834283828735e-01</leafValues></_>
        <_>
          <internalNodes>
            0 -1 31 -4.2181853204965591e-03</internalNodes>
          <leafValues>
            -4.4734087586402893e-01 5.3825169801712036e-01</leafValues></_>
        <_>
          <internalNodes>
            0 -1 21 1.5571902040392160e-03</internalNodes>
          <leafValues>
            -4.0700122714042664e-01 6.1064833402633667e-01</leafValues></_>
        <_>
          <internalNodes>
            0 -1 84 -4.7128059668466449e-04</internalNodes>
          <leafValues>
            -7.5238454341888428e-01 3.3206436038017273e-01</leafValues></_></weakClassifiers></_>
    <!-- stage 13 -->
    <_>
      <maxWeakCount>6</maxWeakCount>
      <stageThreshold>2.5980034470558167e-01</stageThreshold>
      <weakClassifiers>
        <_>
          <internalNodes>
            0 -1 100 -1.0803535114973783e-03</internalNodes>
          <leafValues>
            -8.6666667461395264e-01 6.8075114488601685e-01</leafValues></_>
        <_>
          <internalNodes>
            0 -1 70 -4.0365882217884064e-02</internalNodes>
          <leafValues>
            9.2318898439407349e-01 -1.9913464784622192e-01</leafValues></_>
        <_>
          <internalNodes>
            0 -1 9 1.3031668029725552e-02</internalNodes>
          <leafValues>
            -2.4758639931678772e-01 9.3872481584548950e-01</leafValues></_>
        <_>
          <internalNodes>
            0 -1 113 4.9049459630623460e-04</internalNodes>
          <leafValues>
            3.9251664280891418e-01 -7.5727832317352295e-01</leafValues></_>
        <_>
          <internalNodes>
            0 -1 81 -1.5870636561885476e-03</internalNodes>
          <leafValues>
            -5.5585610866546631e-01 5.0196570158004761e-01</leafValues></_>
        <_>
          <internalNodes>
            0 -1 0 -6.1179901240393519e-04</internalNodes>
          <leafValues>
            -8.4124082326889038e-01 3.2139521837234497e-01</leafValues></_></weakClassifiers></_>
    <!-- stage 14 -->
    <_>
      <maxWeakCount>6</maxWeakCount>
      <stageThreshold>5.8428548276424408e-02</stageThreshold>
      <weakClassifiers>
        <_>
          <internalNodes>
            0 -1 57 2.5015305727720261e-02</internalNodes>
          <leafValues>
            7.1428573131561279e-01 -5.1999998092651367e-01</leafValues></_>
        <_>
          <internalNodes>
            0 -1 23 4.2401582002639771e-02</internalNodes>
          <leafValues>
            -2.5655466318130493e-01 7.9746967554092407e-01</leafValues></_>
        <_>
          <internalNodes>
            0 -1 121 1.6360222361981869e-03</internalNodes>
          <leafValues>
            4.1623467206954956e-01 -6.6361320018768311e-01</leafValues></_>
        <_>
          <internalNodes>
            0 -1 45 -1.1414486216381192e-03</internalNodes>
          <leafValues>
            -6.0456633567810059e-01 5.0761908292770386e-01</leafValues></_>
        <_>
          <internalNodes>
            0 -1 99 -4.7730605001561344e-04</internalNodes>
          <leafValues>
            -5.2364861965179443e-01 5.5363941192626953e-01</leafValues></_>
        <_>
          <internalNodes>
            0 -1 85 -2.0991493947803974e-03</internalNodes>
          <leafValues>
            -6.1924630403518677e-01 4.7091999650001526e-01</leafValues></_></weakClassifiers></_>
    <!-- stage 15 -->
    <_>
      <maxWeakCount>7</maxWeakCount>
      <stageThreshold>1.7555229365825653e-02</stageThreshold>
      <weakClassifiers>
        <_>
          <internalNodes>
            0 -1 37 -8.7165430188179016e-02</internalNodes>
          <leafValues>
            -3.6842104792594910e-01 7.6842105388641357e-01</leafValues></_>
        <_>
          <internalNodes>
            0 -1 58 -2.4179606698453426e-03</internalNodes>
          <leafValues>
            -3.7412539124488831e-01 5.9990042448043823e-01</leafValues></_>
        <_>
          <internalNodes>
            0 -1 112 -9.8599142802413553e-05</internalNodes>
          <leafValues>
            -4.7539523243904114e-01 5.1520103216171265e-01</leafValues></_>
        <_>
          <internalNodes>
            0 -1 79 2.8028041124343872e-02</internalNodes>
          <leafValues>
            -3.0506595969200134e-01 8.2363682985305786e-01</leafValues></_>
        <_>
          <internalNodes>
            0 -1 34 -1.2066316230630036e-05</internalNodes>
          <leafValues>
            7.1598136425018311e-01 -3.4288084506988525e-01</leafValues></_>
        <_>
          <internalNodes>
            0 -1 36 -3.3910828642547131e-04</internalNodes>
          <leafValues>
            -5.0992399454116821e-01 5.4968672990798950e-01</leafValues></_>
        <_>
          <internalNodes>
            0 -1 75 1.3962410390377045e-02</internalNodes>
          <leafValues>
            4.2874559760093689e-01 -7.0760726928710938e-01</leafValues></_></weakClassifiers></_>
    <!-- stage 16 -->
    <_>
      <maxWeakCount>9</maxWeakCount>
      <stageThreshold>-2.4424546957015991e-01</stageThreshold>
      <weakClassifiers>
        <_>
          <internalNodes>
            0 -1 50 -3.5743474960327148e-02</internalNodes>
          <leafValues>
            -5.2380955219268799e-01 6.9082123041152954e-01</leafValues></_>
        <_>
          <internalNodes>
            0 -1 35 -4.8169428482651711e-03</internalNodes>
          <leafValues>
            8.8109195232391357e-01 -1.7605043947696686e-01</leafValues></_>
        <_>
          <internalNodes>
            0 -1 44 1.1469215154647827e-02</internalNodes>
          <leafValues>
            -1.9873157143592834e-01 7.4451076984405518e-01</leafValues></_>
        <_>
          <internalNodes>
            0 -1 62 -2.4754128389758989e-05</internalNodes>
          <leafValues>
            6.2036174535751343e-01 -3.3407947421073914e-01</leafValues></_>
        <_>
          <internalNodes>
            0 -1 101 8.8765076361596584e-04</internalNodes>
          <leafValues>
            -2.3036777973175049e-01 8.4804046154022217e-01</leafValues></_>
        <_>
          <internalNodes>
            0 -1 25 8.6901993199717253e-05</internalNodes>
          <leafValues>
            -2.8094714879989624e-01 7.1867829561233521e-01</leafValues></_>
        <_>
          <internalNodes>
            0 -1 27 -2.5399290025234222e-02</internalNodes>
          <leafValues>
            -7.1997147798538208e-01 3.4034091234207153e-01</leafValues></_>
        <_>
          <internalNodes>
            0 -1 105 -1.3590907910838723e-03</internalNodes>
          <leafValues>
            7.1521419286727905e-01 -3.7669989466667175e-01</leafValues></_>
        <_>
          <internalNodes>
            0 -1 56 3.4865352790802717e-04</internalNodes>
          <leafValues>
            5.0557649135589600e-01 -5.2066838741302490e-01</leafValues></_></weakClassifiers></_>
    <!-- stage 17 -->
    <_>
      <maxWeakCount>8</maxWeakCount>
      <stageThreshold>3.4119537472724915e-01</stageThreshold>
      <weakClassifiers>
        <_>
          <internalNodes>
            0 -1 120 -1.8387062009423971e-03</internalNodes>
          <leafValues>
            -1. 6.6666668653488159e-01</leafValues></_>
        <_>
          <internalNodes>
            0 -1 118 -5.5473728571087122e-04</internalNodes>
          <leafValues>
            8.6025375127792358e-01 -2.4032877385616302e-01</leafValues></_>
        <_>
          <internalNodes>
            0 -1 38 1.2244117446243763e-02</internalNodes>
          <leafValues>
            -4.3872722983360291e-01 5.6864982843399048e-01</leafValues></_>
        <_>
          <internalNodes>
            0 -1 98 1.2870966456830502e-03</internalNodes>
          <leafValues>
            -4.1074281930923462e-01 5.7638370990753174e-01</leafValues></_>
        <_>
          <internalNodes>
            0 -1 26 8.4071280434727669e-04</internalNodes>
          <leafValues>
            -3.6882230639457703e-01 7.6166224479675293e-01</leafValues></_>
        <_>
          <internalNodes>
            0 -1 117 3.1511453562416136e-04</internalNodes>
          <leafValues>
            -2.6983430981636047e-01 8.3021557331085205e-01</leafValues></_>
        <_>
          <internalNodes>
            0 -1 22 -1.6591922612860799e-03</internalNodes>
          <leafValues>
            7.7452307939529419e-01 -2.8841239213943481e-01</leafValues></_>
        <_>
          <internalNodes>
            0 -1 18 8.9270959142595530e-04</internalNodes>
          <leafValues>
            -3.0310705304145813e-01 7.1760267019271851e-01</leafValues></_></weakClassifiers></_></stages>
  <features>
    <_>
      <rects>
        <_>
          0 0 2 2 -1.</_>
        <_>
          0 0 1 1 2.</_>
        <_>
          1 1 1 1 2.</_></rects>
      <tilted>0</tilted></_>
    <_>
      <rects>
        <_>
          0 0 9 10 -1.</_>
        <_>
          3 0 3 10 3.</_></rects>
      <tilted>0</tilted></_>
    <_>
      <rects>
        <_>
          0 2 10 18 -1.</_>
        <_>
          5 2 5 18 2.</_></rects>
      <tilted>0</tilted></_>
    <_>
      <rects>
        <_>
          0 2 12 20 -1.</_>
        <_>
          6 2 6 20 2.</_></rects>
      <tilted>0</tilted></_>
    <_>
      <rects>
        <_>
          0 2 21 7 -1.</_>
        <_>
          7 2 7 7 3.</_></rects>
      <tilted>0</tilted></_>
    <_>
      <rects>
        <_>
          0 3 14 23 -1.</_>
        <_>
          7 3 7 23 2.</_></rects>
      <tilted>0</tilted></_>
    <_>
      <rects>
        <_>
          0 4 10 23 -1.</_>
        <_>
          5 4 5 23 2.</_></rects>
      <tilted>0</tilted></_>
    <_>
      <rects>
        <_>
          0 5 8 13 -1.</_>
        <_>
          4 5 4 13 2.</_></rects>
      <tilted>0</tilted></_>
    <_>
      <rects>
        <_>
          0 12 9 9 -1.</_>
        <_>
          3 12 3 9 3.</_></rects>
      <tilted>0</tilted></_>
    <_>
      <rects>
        <_>
          0 13 6 5 -1.</_>
        <_>
          3 13 3 5 2.</_></rects>
      <tilted>0</tilted></_>
    <_>
      <rects>
        <_>
          0 14 6 8 -1.</_>
        <_>
          2 14 2 8 3.</_></rects>
      <tilted>0</tilted></_>
    <_>
      <rects>
        <_>
          0 15 2 1 -1.</_>
        <_>
          1 15 1 1 2.</_></rects>
      <tilted>0</tilted></_>
    <_>
      <rects>
        <_>
          0 15 4 4 -1.</_>
        <_>
          2 15 2 4 2.</_></rects>
      <tilted>0</tilted></_>
    <_>
      <rects>
        <_>
          0 16 4 11 -1.</_>
        <_>
          2 16 2 11 2.</_></rects>
      <tilted>0</tilted></_>
    <_>
      <rects>
        <_>
          1 1 4 12 -1.</_>
        <_>
          3 1 2 12 2.</_></rects>
      <tilted>0</tilted></_>
    <_>
      <rects>
        <_>
          1 2 6 12 -1.</_>
        <_>
          1 2 3 6 2.</_>
        <_>
          4 8 3 6 2.</_></rects>
      <tilted>0</tilted></_>
    <_>
      <rects>
        <_>
          1 5 6 19 -1.</_>
        <_>
          4 5 3 19 2.</_></rects>
      <tilted>0</tilted></_>
    <_>
      <rects>
        <_>
          1 16 21 14 -1.</_>
        <_>
          1 23 21 7 2.</_></rects>
      <tilted>0</tilted></_>
    <_>
      <rects>
        <_>
          2 13 5 4 -1.</_>
        <_>
          2 15 5 2 2.</_></rects>
      <tilted>0</tilted></_>
    <_>
      <rects>
        <_>
          2 15 16 3 -1.</_>
        <_>
          2 16 16 1 3.</_></rects>
      <tilted>0</tilted></_>
    <_>
      <rects>
        <_>
          2 16 28 14 -1.</_>
        <_>
          2 23 28 7 2.</_></rects>
      <tilted>0</tilted></_>
    <_>
      <rects>
        <_>
          2 21 12 6 -1.</_>
        <_>
          6 21 4 6 3.</_></rects>
      <tilted>0</tilted></_>
    <_>
      <rects>
        <_>
          2 26 24 3 -1.</_>
        <_>
          2 27 24 1 3.</_></rects>
      <tilted>0</tilted></_>
    <_>
      <rects>
        <_>
          3 0 22 8 -1.</_>
        <_>
          3 4 22 4 2.</_></rects>
      <tilted>0</tilted></_>
    <_>
      <rects>
        <_>
          3 2 26 5 -1.</_>
        <_>
          16 2 13 5 2.</_></rects>
      <tilted>0</tilted></_>
    <_>
      <rects>
        <_>
          3 6 2 2 -1.</_>
        <_>
          3 7 2 1 2.</_></rects>
      <tilted>0</tilted></_>
    <_>
      <rects>
        <_>
          3 6 6 8 -1.</_>
        <_>
          3 6 3 4 2.</_>
        <_>
          6 10 3 4 2.</_></rects>
      <tilted>0</tilted></_>
    <_>
      <rects>
        <_>
          3 8 16 8 -1.</_>
        <_>
          11 8 8 8 2.</_></rects>
      <tilted>0</tilted></_>
    <_>
      <rects>
        <_>
          3 11 27 6 -1.</_>
        <_>
          3 13 27 2 3.</_></rects>
      <tilted>0</tilted></_>
    <_>
      <rects>
        <_>
          3 15 25 14 -1.</_>
        <_>
          3 22 25 7 2.</_></rects>
      <tilted>0</tilted></_>
    <_>
      <rects>
        <_>
          3 25 19 4 -1.</_>
        <_>
          3 27 19 2 2.</_></rects>
      <tilted>0</tilted></_>
    <_>
      <rects>
        <_>
          4 4 12 26 -1.</_>
        <_>
          4 4 6 13 2.</_>
        <_>
          10 17 6 13 2.</_></rects>
      <tilted>0</tilted></_>
    <_>
      <rects>
        <_>
          4 8 20 22 -1.</_>
        <_>
          4 19 20 11 2.</_></rects>
      <tilted>0</tilted></_>
    <_>
      <rects>
        <_>
          4 12 25 18 -1.</_>
        <_>
          4 21 25 9 2.</_></rects>
      <tilted>0</tilted></_>
    <_>
      <rects>
        <_>
          4 17 2 2 -1.</_>
        <_>
          4 17 1 1 2.</_>
        <_>
          5 18 1 1 2.</_></rects>
      <tilted>0</tilted></_>
    <_>
      <rects>
        <_>
          4 23 10 6 -1.</_>
        <_>
          4 25 10 2 3.</_></rects>
      <tilted>0</tilted></_>
    <_>
      <rects>
        <_>
          5 1 3 6 -1.</_>
        <_>
          5 4 3 3 2.</_></rects>
      <tilted>0</tilted></_>
    <_>
      <rects>
        <_>
          5 4 24 22 -1.</_>
        <_>
          5 4 12 11 2.</_>
        <_>
          17 15 12 11 2.</_></rects>
      <tilted>0</tilted></_>
    <_>
      <rects>
        <_>
          6 0 13 6 -1.</_>
        <_>
          6 3 13 3 2.</_></rects>
      <tilted>0</tilted></_>
    <_>
      <rects>
        <_>
          6 5 24 22 -1.</_>
        <_>
          14 5 8 22 3.</_></rects>
      <tilted>0</tilted></_>
    <_>
      <rects>
        <_>
          6 16 18 2 -1.</_>
        <_>
          6 16 9 1 2.</_>
        <_>
          15 17 9 1 2.</_></rects>
      <tilted>0</tilted></_>
    <_>
      <rects>
        <_>
          6 17 7 3 -1.</_>
        <_>
          6 18 7 1 3.</_></rects>
      <tilted>0</tilted></_>
    <_>
      <rects>
        <_>
          7 0 20 6 -1.</_>
        <_>
          7 3 20 3 2.</_></rects>
      <tilted>0</tilted></_>
    <_>
      <rects>
        <_>
          7 1 22 6 -1.</_>
        <_>
          18 1 11 6 2.</_></rects>
      <tilted>0</tilted></_>
    <_>
      <rects>
        <_>
          7 4 14 9 -1.</_>
        <_>
          7 7 14 3 3.</_></rects>
      <tilted>0</tilted></_>
    <_>
      <rects>
        <_>
          7 5 9 1 -1.</_>
        <_>
          10 5 3 1 3.</_></rects>
      <tilted>0</tilted></_>
    <_>
      <rects>
        <_>
          7 19 14 2 -1.</_>
        <_>
          7 19 7 1 2.</_>
        <_>
          14 20 7 1 2.</_></rects>
      <tilted>0</tilted></_>
    <_>
      <rects>
        <_>
          8 1 3 4 -1.</_>
        <_>
          8 3 3 2 2.</_></rects>
      <tilted>0</tilted></_>
    <_>
      <rects>
        <_>
          8 13 6 2 -1.</_>
        <_>
          8 13 3 1 2.</_>
        <_>
          11 14 3 1 2.</_></rects>
      <tilted>0</tilted></_>
    <_>
      <rects>
        <_>
          9 0 9 22 -1.</_>
        <_>
          9 11 9 11 2.</_></rects>
      <tilted>0</tilted></_>
    <_>
      <rects>
        <_>
          9 4 18 10 -1.</_>
        <_>
          9 4 9 5 2.</_>
        <_>
          18 9 9 5 2.</_></rects>
      <tilted>0</tilted></_>
    <_>
      <rects>
        <_>
          9 8 14 8 -1.</_>
        <_>
          9 8 7 4 2.</_>
        <_>
          16 12 7 4 2.</_></rects>
      <tilted>0</tilted></_>
    <_>
      <rects>
        <_>
          9 14 4 12 -1.</_>
        <_>
          9 18 4 4 3.</_></rects>
      <tilted>0</tilted></_>
    <_>
      <rects>
        <_>
          9 25 21 2 -1.</_>
        <_>
          16 25 7 2 3.</_></rects>
      <tilted>0</tilted></_>
    <_>
      <rects>
        <_>
          10 4 2 2 -1.</_>
        <_>
          10 5 2 1 2.</_></rects>
      <tilted>0</tilted></_>
    <_>
      <rects>
        <_>
          10 8 2 9 -1.</_>
        <_>
          11 8 1 9 2.</_></rects>
      <tilted>0</tilted></_>
    <_>
      <rects>
        <_>
          10 8 3 4 -1.</_>
        <_>
          10 10 3 2 2.</_></rects>
      <tilted>0</tilted></_>
    <_>
      <rects>
        <_>
          10 9 12 5 -1.</_>
        <_>
          16 9 6 5 2.</_></rects>
      <tilted>0</tilted></_>
    <_>
      <rects>
        <_>
          10 19 6 8 -1.</_>
        <_>
          10 19 3 4 2.</_>
        <_>
          13 23 3 4 2.</_></rects>
      <tilted>0</tilted></_>
    <_>
      <rects>
        <_>
          10 20 19 10 -1.</_>
        <_>
          10 25 19 5 2.</_></rects>
      <tilted>0</tilted></_>
    <_>
      <rects>
        <_>
          11 6 4 23 -1.</_>
        <_>
          13 6 2 23 2.</_></rects>
      <tilted>0</tilted></_>
    <_>
      <rects>
        <_>
          11 10 2 3 -1.</_>
        <_>
          11 11 2 1 3.</_></rects>
      <tilted>0</tilted></_>
    <_>
      <rects>
        <_>
          11 18 2 2 -1.</_>
        <_>
          11 18 1 1 2.</_>
        <_>
          12 19 1 1 2.</_></rects>
      <tilted>0</tilted></_>
    <_>
      <rects>
        <_>
          11 20 2 2 -1.</_>
        <_>
          11 20 1 1 2.</_>
        <_>
          12 21 1 1 2.</_></rects>
      <tilted>0</tilted></_>
    <_>
      <rects>
        <_>
          12 1 2 6 -1.</_>
        <_>
          12 4 2 3 2.</_></rects>
      <tilted>0</tilted></_>
    <_>
      <rects>
        <_>
          12 1 7 15 -1.</_>
        <_>
          12 6 7 5 3.</_></rects>
      <tilted>0</tilted></_>
    <_>
      <rects>
        <_>
          12 18 2 2 -1.</_>
        <_>
          12 18 1 1 2.</_>
        <_>
          13 19 1 1 2.</_></rects>
      <tilted>0</tilted></_>
    <_>
      <rects>
        <_>
          12 20 6 2 -1.</_>
        <_>
          12 20 3 1 2.</_>
        <_>
          15 21 3 1 2.</_></rects>
      <tilted>0</tilted></_>
    <_>
      <rects>
        <_>
          13 3 4 8 -1.</_>
        <_>
          13 3 2 4 2.</_>
        <_>
          15 7 2 4 2.</_></rects>
      <tilted>0</tilted></_>
    <_>
      <rects>
        <_>
          13 18 8 12 -1.</_>
        <_>
          13 24 8 6 2.</_></rects>
      <tilted>0</tilted></_>
    <_>
      <rects>
        <_>
          13 18 11 10 -1.</_>
        <_>
          13 23 11 5 2.</_></rects>
      <tilted>0</tilted></_>
    <_>
      <rects>
        <_>
          14 4 2 26 -1.</_>
        <_>
          14 17 2 13 2.</_></rects>
      <tilted>0</tilted></_>
    <_>
      <rects>
        <_>
          14 25 15 5 -1.</_>
        <_>
          19 25 5 5 3.</_></rects>
      <tilted>0</tilted></_>
    <_>
      <rects>
        <_>
          14 25 8 4 -1.</_>
        <_>
          14 27 8 2 2.</_></rects>
      <tilted>0</tilted></_>
    <_>
      <rects>
        <_>
          15 1 12 16 -1.</_>
        <_>
          21 1 6 16 2.</_></rects>
      <tilted>0</tilted></_>
    <_>
      <rects>
        <_>
          15 4 3 15 -1.</_>
        <_>
          15 9 3 5 3.</_></rects>
      <tilted>0</tilted></_>
    <_>
      <rects>
        <_>
          15 10 4 20 -1.</_>
        <_>
          15 20 4 10 2.</_></rects>
      <tilted>0</tilted></_>
    <_>
      <rects>
        <_>
          15 16 3 1 -1.</_>
        <_>
          16 16 1 1 3.</_></rects>
      <tilted>0</tilted></_>
    <_>
      <rects>
        <_>
          16 9 1 3 -1.</_>
        <_>
          16 10 1 1 3.</_></rects>
      <tilted>0</tilted></_>
    <_>
      <rects>
        <_>
          16 17 9 12 -1.</_>
        <_>
          16 21 9 4 3.</_></rects>
      <tilted>0</tilted></_>
    <_>
      <rects>
        <_>
          17 0 3 30 -1.</_>
        <_>
          18 0 1 30 3.</_></rects>
      <tilted>0</tilted></_>
    <_>
      <rects>
        <_>
          17 10 6 2 -1.</_>
        <_>
          20 10 3 2 2.</_></rects>
      <tilted>0</tilted></_>
    <_>
      <rects>
        <_>
          18 3 4 6 -1.</_>
        <_>
          18 6 4 3 2.</_></rects>
      <tilted>0</tilted></_>
    <_>
      <rects>
        <_>
          18 7 5 12 -1.</_>
        <_>
          18 11 5 4 3.</_></rects>
      <tilted>0</tilted></_>
    <_>
      <rects>
        <_>
          18 27 3 1 -1.</_>
        <_>
          19 27 1 1 3.</_></rects>
      <tilted>0</tilted></_>
    <_>
      <rects>
        <_>
          19 8 2 20 -1.</_>
        <_>
          20 8 1 20 2.</_></rects>
      <tilted>0</tilted></_>
    <_>
      <rects>
        <_>
          19 18 5 12 -1.</_>
        <_>
          19 22 5 4 3.</_></rects>
      <tilted>0</tilted></_>
    <_>
      <rects>
        <_>
          19 22 5 8 -1.</_>
        <_>
          19 26 5 4 2.</_></rects>
      <tilted>0</tilted></_>
    <_>
      <rects>
        <_>
          20 2 2 4 -1.</_>
        <_>
          20 4 2 2 2.</_></rects>
      <tilted>0</tilted></_>
    <_>
      <rects>
        <_>
          20 6 9 13 -1.</_>
        <_>
          23 6 3 13 3.</_></rects>
      <tilted>0</tilted></_>
    <_>
      <rects>
        <_>
          20 22 4 8 -1.</_>
        <_>
          20 26 4 4 2.</_></rects>
      <tilted>0</tilted></_>
    <_>
      <rects>
        <_>
          21 1 2 2 -1.</_>
        <_>
          21 1 1 1 2.</_>
        <_>
          22 2 1 1 2.</_></rects>
      <tilted>0</tilted></_>
    <_>
      <rects>
        <_>
          21 4 8 4 -1.</_>
        <_>
          25 4 4 4 2.</_></rects>
      <tilted>0</tilted></_>
    <_>
      <rects>
        <_>
          21 9 3 1 -1.</_>
        <_>
          22 9 1 1 3.</_></rects>
      <tilted>0</tilted></_>
    <_>
      <rects>
        <_>
          21 26 3 4 -1.</_>
        <_>
          21 28 3 2 2.</_></rects>
      <tilted>0</tilted></_>
    <_>
      <rects>
        <_>
          22 10 6 17 -1.</_>
        <_>
          25 10 3 17 2.</_></rects>
      <tilted>0</tilted></_>
    <_>
      <rects>
        <_>
          22 12 5 10 -1.</_>
        <_>
          22 17 5 5 2.</_></rects>
      <tilted>0</tilted></_>
    <_>
      <rects>
        <_>
          22 21 7 2 -1.</_>
        <_>
          22 22 7 1 2.</_></rects>
      <tilted>0</tilted></_>
    <_>
      <rects>
        <_>
          23 13 3 15 -1.</_>
        <_>
          23 18 3 5 3.</_></rects>
      <tilted>0</tilted></_>
    <_>
      <rects>
        <_>
          23 18 5 2 -1.</_>
        <_>
          23 19 5 1 2.</_></rects>
      <tilted>0</tilted></_>
    <_>
      <rects>
        <_>
          23 19 2 2 -1.</_>
        <_>
          23 19 1 1 2.</_>
        <_>
          24 20 1 1 2.</_></rects>
      <tilted>0</tilted></_>
    <_>
      <rects>
        <_>
          23 20 6 3 -1.</_>
        <_>
          23 21 6 1 3.</_></rects>
      <tilted>0</tilted></_>
    <_>
      <rects>
        <_>
          23 27 3 2 -1.</_>
        <_>
          24 27 1 2 3.</_></rects>
      <tilted>0</tilted></_>
    <_>
      <rects>
        <_>
          24 0 6 1 -1.</_>
        <_>
          27 0 3 1 2.</_></rects>
      <tilted>0</tilted></_>
    <_>
      <rects>
        <_>
          24 2 4 2 -1.</_>
        <_>
          24 3 4 1 2.</_></rects>
      <tilted>0</tilted></_>
    <_>
      <rects>
        <_>
          24 8 6 6 -1.</_>
        <_>
          24 8 3 3 2.</_>
        <_>
          27 11 3 3 2.</_></rects>
      <tilted>0</tilted></_>
    <_>
      <rects>
        <_>
          24 12 6 9 -1.</_>
        <_>
          27 12 3 9 2.</_></rects>
      <tilted>0</tilted></_>
    <_>
      <rects>
        <_>
          24 19 1 2 -1.</_>
        <_>
          24 20 1 1 2.</_></rects>
      <tilted>0</tilted></_>
    <_>
      <rects>
        <_>
          25 4 2 14 -1.</_>
        <_>
          26 4 1 14 2.</_></rects>
      <tilted>0</tilted></_>
    <_>
      <rects>
        <_>
          25 4 4 19 -1.</_>
        <_>
          27 4 2 19 2.</_></rects>
      <tilted>0</tilted></_>
    <_>
      <rects>
        <_>
          26 6 4 7 -1.</_>
        <_>
          28 6 2 7 2.</_></rects>
      <tilted>0</tilted></_>
    <_>
      <rects>
        <_>
          26 17 4 2 -1.</_>
        <_>
          28 17 2 2 2.</_></rects>
      <tilted>0</tilted></_>
    <_>
      <rects>
        <_>
          26 18 1 2 -1.</_>
        <_>
          26 19 1 1 2.</_></rects>
      <tilted>0</tilted></_>
    <_>
      <rects>
        <_>
          26 23 2 2 -1.</_>
        <_>
          26 23 1 1 2.</_>
        <_>
          27 24 1 1 2.</_></rects>
      <tilted>0</tilted></_>
    <_>
      <rects>
        <_>
          27 2 2 28 -1.</_>
        <_>
          28 2 1 28 2.</_></rects>
      <tilted>0</tilted></_>
    <_>
      <rects>
        <_>
          27 6 2 3 -1.</_>
        <_>
          27 7 2 1 3.</_></rects>
      <tilted>0</tilted></_>
    <_>
      <rects>
        <_>
          27 18 3 4 -1.</_>
        <_>
          28 18 1 4 3.</_></rects>
      <tilted>0</tilted></_>
    <_>
      <rects>
        <_>
          27 20 2 8 -1.</_>
        <_>
          27 24 2 4 2.</_></rects>
      <tilted>0</tilted></_>
    <_>
      <rects>
        <_>
          27 21 3 8 -1.</_>
        <_>
          28 21 1 8 3.</_></rects>
      <tilted>0</tilted></_>
    <_>
      <rects>
        <_>
          27 23 3 7 -1.</_>
        <_>
          28 23 1 7 3.</_></rects>
      <tilted>0</tilted></_>
    <_>
      <rects>
        <_>
          27 25 1 3 -1.</_>
        <_>
          27 26 1 1 3.</_></rects>
      <tilted>0</tilted></_>
    <_>
      <rects>
        <_>
          28 11 2 4 -1.</_>
        <_>
          28 13 2 2 2.</_></rects>
      <tilted>0</tilted></_>
    <_>
      <rects>
        <_>
          28 12 2 12 -1.</_>
        <_>
          29 12 1 12 2.</_></rects>
      <tilted>0</tilted></_>
    <_>
      <rects>
        <_>
          28 20 1 3 -1.</_>
        <_>
          28 21 1 1 3.</_></rects>
      <tilted>0</tilted></_></features></cascade>
</opencv_storage>
