<?xml version="1.0"?>
<opencv_storage>
<stage2>
  <maxWeakCount>6</maxWeakCount>
  <stageThreshold>1.5530864894390106e-01</stageThreshold>
  <weakClassifiers>
    <_>
      <internalNodes>
        0 -1 349615 -8.2618743181228638e-03</internalNodes>
      <leafValues>
        9.2805755138397217e-01 3.3707864582538605e-02</leafValues></_>
    <_>
      <internalNodes>
        0 -1 5563 6.7557081580162048e-02</internalNodes>
      <leafValues>
        -1.4694778621196747e-01 8.6692494153976440e-01</leafValues></_>
    <_>
      <internalNodes>
        0 -1 253473 4.9467156641185284e-03</internalNodes>
      <leafValues>
        -3.9504858851432800e-01 6.9593340158462524e-01</leafValues></_>
    <_>
      <internalNodes>
        0 -1 393874 -1.2969076633453369e-03</internalNodes>
      <leafValues>
        8.1714349985122681e-01 -3.7785142660140991e-01</leafValues></_>
    <_>
      <internalNodes>
        0 -1 27873 4.7584865242242813e-03</internalNodes>
      <leafValues>
        -3.3367973566055298e-01 7.9669415950775146e-01</leafValues></_>
    <_>
      <internalNodes>
        0 -1 69412 -1.5262223314493895e-03</internalNodes>
      <leafValues>
        -7.0524334907531738e-01 4.8077863454818726e-01</leafValues></_></weakClassifiers></stage2>
</opencv_storage>
