<?xml version="1.0"?>
<opencv_storage>
<stage15>
  <maxWeakCount>7</maxWeakCount>
  <stageThreshold>1.7555229365825653e-02</stageThreshold>
  <weakClassifiers>
    <_>
      <internalNodes>
        0 -1 126520 -8.7165430188179016e-02</internalNodes>
      <leafValues>
        -3.6842104792594910e-01 7.6842105388641357e-01</leafValues></_>
    <_>
      <internalNodes>
        0 -1 233592 -2.4179606698453426e-03</internalNodes>
      <leafValues>
        -3.7412539124488831e-01 5.9990042448043823e-01</leafValues></_>
    <_>
      <internalNodes>
        0 -1 390123 -9.8599142802413553e-05</internalNodes>
      <leafValues>
        -4.7539523243904114e-01 5.1520103216171265e-01</leafValues></_>
    <_>
      <internalNodes>
        0 -1 318010 2.8028041124343872e-02</internalNodes>
      <leafValues>
        -3.0506595969200134e-01 8.2363682985305786e-01</leafValues></_>
    <_>
      <internalNodes>
        0 -1 116114 -1.2066316230630036e-05</internalNodes>
      <leafValues>
        7.1598136425018311e-01 -3.4288084506988525e-01</leafValues></_>
    <_>
      <internalNodes>
        0 -1 121941 -3.3910828642547131e-04</internalNodes>
      <leafValues>
        -5.0992399454116821e-01 5.4968672990798950e-01</leafValues></_>
    <_>
      <internalNodes>
        0 -1 298760 1.3962410390377045e-02</internalNodes>
      <leafValues>
        4.2874559760093689e-01 -7.0760726928710938e-01</leafValues></_></weakClassifiers></stage15>
</opencv_storage>
