<?xml version="1.0"?>
<opencv_storage>
<stage10>
  <maxWeakCount>6</maxWeakCount>
  <stageThreshold>-3.4743517637252808e-01</stageThreshold>
  <weakClassifiers>
    <_>
      <internalNodes>
        0 -1 394197 1.4061110559850931e-03</internalNodes>
      <leafValues>
        6.8075114488601685e-01 -8.6666667461395264e-01</leafValues></_>
    <_>
      <internalNodes>
        0 -1 279633 -3.2293699681758881e-02</internalNodes>
      <leafValues>
        7.7751433849334717e-01 -3.2977977395057678e-01</leafValues></_>
    <_>
      <internalNodes>
        0 -1 384619 -2.2629308514297009e-03</internalNodes>
      <leafValues>
        8.9194011688232422e-01 -2.5338378548622131e-01</leafValues></_>
    <_>
      <internalNodes>
        0 -1 241726 -6.9564962759613991e-03</internalNodes>
      <leafValues>
        -6.0307073593139648e-01 4.0025371313095093e-01</leafValues></_>
    <_>
      <internalNodes>
        0 -1 314157 -2.0203721942380071e-04</internalNodes>
      <leafValues>
        -6.5490859746932983e-01 5.0551342964172363e-01</leafValues></_>
    <_>
      <internalNodes>
        0 -1 366072 -3.7224902771413326e-03</internalNodes>
      <leafValues>
        8.8311344385147095e-01 -3.4746545553207397e-01</leafValues></_></weakClassifiers></stage10>
</opencv_storage>
