<?xml version="1.0"?>
<opencv_storage>
<stage14>
  <maxWeakCount>6</maxWeakCount>
  <stageThreshold>5.8428548276424408e-02</stageThreshold>
  <weakClassifiers>
    <_>
      <internalNodes>
        0 -1 227789 2.5015305727720261e-02</internalNodes>
      <leafValues>
        7.1428573131561279e-01 -5.1999998092651367e-01</leafValues></_>
    <_>
      <internalNodes>
        0 -1 76266 4.2401582002639771e-02</internalNodes>
      <leafValues>
        -2.5655466318130493e-01 7.9746967554092407e-01</leafValues></_>
    <_>
      <internalNodes>
        0 -1 393826 1.6360222361981869e-03</internalNodes>
      <leafValues>
        4.1623467206954956e-01 -6.6361320018768311e-01</leafValues></_>
    <_>
      <internalNodes>
        0 -1 168532 -1.1414486216381192e-03</internalNodes>
      <leafValues>
        -6.0456633567810059e-01 5.0761908292770386e-01</leafValues></_>
    <_>
      <internalNodes>
        0 -1 377634 -4.7730605001561344e-04</internalNodes>
      <leafValues>
        -5.2364861965179443e-01 5.5363941192626953e-01</leafValues></_>
    <_>
      <internalNodes>
        0 -1 345410 -2.0991493947803974e-03</internalNodes>
      <leafValues>
        -6.1924630403518677e-01 4.7091999650001526e-01</leafValues></_></weakClassifiers></stage14>
</opencv_storage>
