<?xml version="1.0"?>
<opencv_storage>
<stage0>
  <maxWeakCount>6</maxWeakCount>
  <stageThreshold>2.5189474225044250e-01</stageThreshold>
  <weakClassifiers>
    <_>
      <internalNodes>
        0 -1 109265 -6.8352572619915009e-02</internalNodes>
      <leafValues>
        9.8601400852203369e-01 -1.0588235408067703e-01</leafValues></_>
    <_>
      <internalNodes>
        0 -1 113128 -7.5771413743495941e-02</internalNodes>
      <leafValues>
        1. -3.5287406295537949e-02</leafValues></_>
    <_>
      <internalNodes>
        0 -1 8257 1.8912870436906815e-02</internalNodes>
      <leafValues>
        -2.1194452047348022e-01 8.6673128604888916e-01</leafValues></_>
    <_>
      <internalNodes>
        0 -1 218323 4.0354122756980360e-04</internalNodes>
      <leafValues>
        -4.7527828812599182e-01 6.0774391889572144e-01</leafValues></_>
    <_>
      <internalNodes>
        0 -1 164628 -2.2236745804548264e-02</internalNodes>
      <leafValues>
        8.7370908260345459e-01 -3.5495215654373169e-01</leafValues></_>
    <_>
      <internalNodes>
        0 -1 320084 -2.1556878928095102e-03</internalNodes>
      <leafValues>
        -6.9194430112838745e-01 4.9357029795646667e-01</leafValues></_></weakClassifiers></stage0>
</opencv_storage>
